function [Y,Xf,Af] = ESPER_talk_9_Other_3(X,~,~)
%ESPER_TALK_9_OTHER_3 neural network simulation function.
%
% Generated by Neural Network Toolbox function genFunction, 12-Jan-2021 17:03:48.
% 
% [Y] = ESPER_talk_9_Other_3(X,~,~) takes these arguments:
% 
%   X = 1xTS cell, 1 inputs over TS timesteps
%   Each X{1,ts} = 8xQ matrix, input #1 at timestep ts.
% 
% and returns:
%   Y = 1xTS cell of 1 outputs over TS timesteps.
%   Each Y{1,ts} = 1xQ matrix, output #1 at timestep ts.
% 
% where Q is number of samples (or series) and TS is the number of timesteps.

%#ok<*RPMT0>

% ===== NEURAL NETWORK CONSTANTS =====

% Input 1
x1_step1.xoffset = [-0.999999984769129;-0.999540494077341;-75.751;0;29.715;-0.9;-133.803853032615;-0.1386];
x1_step1.gain = [1.00000001035699;1.00022983623563;0.0140762793578401;0.000302617642608564;0.251952632905014;0.0422119037568594;0.00432440760873659;0.00826143816767911];
x1_step1.ymin = -1;

% Layer 1
b1 = [-1.0987808328943891;1.7939424508407387;-1.8582692315629257;-3.4266143185200888;2.7377463672421163;-1.6769240813995789;1.8557655681041998;-0.76304749338251199;-1.2117114078189135;0.88421164231335903;-0.13916683873485905;-0.010242297375490036;-0.37740688903046077;0.50370786474021956;0.031031239908932539;0.11212891992837475;-0.54183881435412273;-0.68756048689013372;-0.53492214736255617;0.96346795641748406;0.38510194676503084;1.3316767277650861;1.0343608414594636;-0.067945095851140502;-1.7471325654979286];
IW1_1 = [0.84628915455000897 0.44352042420549609 1.2526634322306029 0.057728788159114287 1.4339960295414804 -1.0070341292041862 0.19411785783369612 0.83104064731650407;-0.00067601009463278067 -0.37573676058829147 -0.33139969245894474 -1.1091901258952563 -0.78675743644637441 0.043551667954834471 -1.1297288486697936 -0.7046234731755705;1.4070705710426128 0.6498323020097202 0.32772655246659738 0.5565097668242317 -3.0815149610311252 1.2870454461374583 -0.36840746320464351 0.50786540245070344;0.29996791431254727 -0.36779792983096204 -2.3078005612038717 0.10405142651185294 -1.150292461652946 0.3228332223709498 -0.20152315003758173 -1.1965089140463832;-1.0031360302647521 -0.271094943099561 -0.55373900212639482 0.23854340104479765 -2.2605464117030905 -1.4068059978580907 0.92411424306312384 -0.51160264973723801;1.6745878520879154 0.54129977046833566 -0.34515948661110424 0.38107495464956048 1.3403159647711678 -0.89262763411798651 1.2732148346302803 -0.078449418029475956;-0.16385469641783298 -0.13875943035865676 3.6352603594506765 0.37726287519437074 0.67141488271335059 0.42693493372612973 0.94808293000638055 -0.33305364256741399;1.66669850405911 0.98703601574166444 0.77072944702781931 0.50974419056786435 -2.2261530979356281 -0.80542402430196847 0.86699394524314966 -1.4229985323257497;0.24285611088928385 -0.26059771766596579 -1.2368115208496369 0.65198790069879109 0.91413930473291194 0.31961970026006792 -0.32254478849991841 0.46189250696421491;-0.24518790217569486 -0.82155886976425108 -0.41769228343613296 -0.38228957251672319 -2.1253205856536659 0.6296789430905263 0.3088350688206169 -0.32742214903425781;-0.17688844902048786 -0.017818867198589397 0.058520055193895255 0.67511765116372724 1.9104818423949377 -0.64635081458190979 0.52453771390048354 -1.4081775574639777;-0.19069268685222168 0.12107545419257475 0.17854628160394687 -0.27735429892239355 -0.73156406404492758 0.29818006178940826 -0.45227065313770798 -0.20003581991801164;-1.1391394821657306 -0.51004341141768905 0.045233501243777938 0.17081078356272342 -0.83385949581022067 0.85838087268506169 -0.46328779655039731 -0.48000154945939971;0.38047121353186786 -0.59147472670832946 2.7883445217823 0.25649208710572913 -1.7820184476850274 0.56625619326513388 -0.6692045709635549 0.5373185222341007;0.074966716357231178 0.066549550602450089 -0.57102338976516198 0.25079477110997761 1.6424348621205744 0.79884855693693335 -0.90738536160947025 0.73409680446440817;0.13179342602176713 -0.25923016892228751 0.34890245525760993 0.90314739720624448 -0.4920567550547697 0.098345533465130724 -0.20264234335054673 0.10598643002467037;-0.57325903142321877 0.04264529775915761 0.73633424352896293 -0.29000676538008929 0.23858364604007418 0.36701475599166172 -0.5593290774723696 -0.3389642791183286;-0.82402204063540996 0.84266374283832413 0.017814929101672206 -0.23281621443562256 1.1515893135512045 1.0221594893584423 -0.81115479148845659 0.14576556429826767;-0.071017238723114481 -0.021801704742699473 0.21537005395615405 0.88226876680432564 -0.42732809846926756 -0.05980649446340696 0.59492717242683457 0.62755202863380055;1.2442316335057431 -0.10905787234069746 1.763747518717713 -0.066273943350362116 1.304844240291233 0.59711307376937961 -1.1291645131080161 2.0862212096563404;0.38854845110855951 -0.20104992981389175 -0.16779860050775505 -0.19203109395356521 -0.085961650494870229 -0.40933740781032218 0.1747226130327951 0.47396482282584823;0.086068436867962186 -1.4752040828819166 -1.7798464346995484 1.4610907853751469 0.16409097084925506 0.95831368054746235 -1.419031102539047 -1.2216051379557578;0.56303630912463842 -0.34771898586495492 -1.0513338289114114 -0.46349202967980002 -1.0485993210637239 1.2321758129159439 -0.013890713118641811 0.51325794925777224;-0.096646682679168872 0.089173311565126173 0.44582174796698126 -0.96590050493352486 1.2203184906734184 0.54909221937604424 0.34041535226684505 -1.3925832069837263;-0.9267999568655142 1.7761034700692433 -0.44680008377052938 -0.47141988222787196 -1.915556013993893 -0.25045881483691207 0.80707219292801535 1.0412178557796978];

% Layer 2
b2 = [0.32038251165962262;-1.4612464717944091;-4.0635806397062746;2.6691628719335663;-1.7208207509232893;0.58672014742497414;-2.2363110199355285;0.52611068410637896;1.0798835802481714;2.1195818170137319;3.9221791791245422;3.2897185933209281;1.6729882994704153;7.1174405215243439;-1.0291562067868936];
LW2_1 = [0.47652651738425783 2.4274525322979921 -1.4103000335533227 2.5920943260555966 1.154723245798017 0.26080009039840568 -1.2981549117967544 0.24975588806645832 1.626535558642173 0.024607300524587917 -0.27185958898395407 1.1016047164182081 -0.80818456836471098 1.5400337375640394 0.032523886526181399 -2.9616893306589205 1.2536132582387634 -0.49182857104894573 3.8708051489359887 0.10610642212045709 -1.2716914562937105 0.78187882019346944 -0.64768855447340068 -0.45502230471093164 -0.24170284024370012;-0.28834555089396174 -2.4967273851597702 6.0624845927168716 -0.32348144076980262 2.7863014211895334 -1.2468524318295624 0.55705195367515392 2.930212266627731 4.0706075180561774 0.07562791350908836 0.79148393337329181 -1.4533348057989885 0.037097160478207894 1.5420424610881343 0.50186206461679128 -4.4135677627508842 -2.7389185390710113 -0.00032193956768228164 -0.57558889090106635 0.38965381086594775 0.0085662619799307914 -0.069767489037842856 -1.3603767487475245 3.0478011382312893 -0.012185415844558149;0.60138681674526806 0.19568468345810577 2.2939888012608307 -2.1261604778882188 1.224526154090988 -0.4213788384702708 -0.19305747131750842 -0.28625717998734312 -1.8713727023669302 -0.529784334549258 1.2970688647937263 -1.9376066937535852 1.8809540386923864 0.82687154431187382 2.1524812454112778 -2.733328044350948 2.2223008991877111 -0.86804322956471158 0.2876350320487589 -0.37791542710618448 0.74048557372632395 -0.95183628062837233 0.75698343545619695 -0.40081501161696581 -0.42712685212314544;1.2741746891621986 1.2307750684369936 -0.92734348012644063 1.6319784491311635 -2.8200256643797807 -1.7697160427636693 0.010266019309386133 0.59588988891781558 1.2804494494271732 -1.1977999981541019 0.14322673273760306 -0.47774070285662451 -0.71492526666941281 0.085793675383801962 -0.065374763640911743 1.1600842396939977 -1.1081437144819422 -0.089435483772271382 2.2915957825602113 0.34479829906219028 -1.5998828553424365 -0.51807408684573153 2.1098249316359703 1.9219108054059124 -0.70161841936784708;-2.0063524033766345 1.1491464276894441 2.3982488469479972 -0.27643515900223486 -2.6874136957405588 -0.25501417248243502 -0.032916639102882395 -0.25583182894977313 -2.8236165112112039 -1.4172972249777298 1.7934670079029711 -1.1960594686693975 1.8215533595091669 0.96627161307885867 1.0542750115883712 0.10635023184102439 -0.53700779772651019 -0.35554351431410686 -3.3693317712252919 0.67834915724831524 1.8311574685635736 -0.076158272758518636 0.5687288039272268 -1.389751656825281 0.45727512171044898;-0.22028392402133051 -0.14424937713605182 0.13894943499369511 1.32448886313952 0.72718827841895439 0.20148087147226418 0.010007702937322272 0.05020404213739061 -0.010300689041407208 0.19909959742556402 -0.87875949593236891 -0.48408807704832696 -0.63692520168337408 -0.21429465746565002 -0.038227718964692882 0.076452681177849771 0.58458167127411376 0.17759323641871508 1.0019147159274748 -0.024281170141219048 -0.98725454174681948 0.096545896966719488 0.020000260536797251 0.33734846270928964 -0.39353264690035566;0.1234892321441086 0.90033389006705355 0.49204835493578969 0.0090251309753591469 0.51062721322203841 -0.085907305216187793 -0.052331857165747168 0.033991827194774726 -0.5431011934392419 0.090136611679656475 0.36862131449297819 0.52784827512378485 -0.18830217206685715 0.30049525383456233 0.14041400638972237 -0.75667466460618649 -0.11442796998195766 -0.033010516611649908 0.84440638854750372 0.14518701151216704 -0.22374753650858353 0.027785624005619212 -0.10758383355833948 -0.4898421666519639 0.057281273897804769;0.12281933599467042 0.45081086771050272 0.98635569693259328 -0.31920988813817247 -0.18604598555874197 -0.036286736753351992 -0.4695636096209424 0.23866306868725942 -1.4062375684577311 0.77916793392602401 -0.3913037997217772 -1.7952239765549429 -1.4227465324191486 0.41338329984973143 0.74570271876897787 -0.59665992784898692 0.42707942496634999 -0.1156502120175178 1.056457579429336 -0.10426419979374409 -2.816336963938586 0.071950691995061211 -0.40002738436992735 -0.2770005057795778 -0.18445804949119002;-0.72896162542621923 -0.75353726673830246 0.093704008414312298 0.76724136198184023 0.20582351037856025 0.29485912561398747 -0.32208978719196252 -0.49961373602469894 -2.6160522388171636 0.55389619202480755 -1.3134593450848504 -2.1525685809192536 0.3169235586967365 -0.54093036206405221 0.026676527809745606 1.2800064088245116 1.9017228706532046 0.59671328004808977 -0.6240509906695012 -0.16287156900999758 0.55951469600768178 0.27269140145741866 -1.2936760859781857 -0.41559314885448928 -0.48647916901053112;-1.4977532832122487 5.0337128547797096 -5.5761398619548332 8.5966240208355131 -1.254241614297076 0.41832257492539227 0.044886154251682339 1.5869345715160825 -3.8050277422664154 2.7999873905236554 -3.8706957437500114 -3.9259882998384263 -0.62360741106495043 -1.5062641467750395 -2.3395115079959319 5.5979994013931798 0.081532795756168619 1.3616653401512289 0.079060017283832218 -1.3303475915587086 -0.24394442651010639 -1.0051346811066053 -3.8844742926592213 -1.0504363862729469 -0.41168694882261059;0.064360883342179459 1.8937309524083976 1.835330626931625 2.7622459921767581 -0.8395737317670271 -0.51287721930962293 0.048974693334240677 0.00064877766951442015 -0.65458684021582059 0.6045139338762181 1.0183865932350653 0.72123997729857481 -0.90883015372354581 -0.36406636656165997 2.0315406722244544 -1.9302420404696392 0.47788172402328316 -1.4345367336454828 2.2047601360528928 -0.070759208492956596 -2.1852634376509692 -0.19139489169436394 -0.30664801609929382 -1.2792854331374024 -0.61774859080857525;-0.53979485538461103 -3.4670812738091876 1.7447374814437973 0.12202992478468835 -1.7622442572437542 0.67135068894184191 0.61090967113644756 0.19360518325730164 1.2246277773272871 -0.44929377012345184 0.04966316752239671 1.4253692159149791 1.2502456923068312 -0.26933661690526151 -1.2072125310261514 0.90657475588942782 0.47807553717862861 0.74889096182432846 -2.1314003399398365 -0.27790360109101331 3.6560802794587963 0.033319574753607903 0.33913054477986732 1.1485761056533823 0.29219616225073541;0.086424750102583256 -0.080550689386212834 0.76248613422095524 2.0472192417447261 -0.38092715433126212 -0.45955843474216379 -0.39153579453185833 -0.20921077694813006 -0.96635740443090978 0.98578626951748716 0.10564842445407729 -1.4584834429778875 -1.4732353506323541 -0.54278029901017322 1.5962756033873897 0.081932879790849206 0.59320314706399524 -1.7293128025588103 -2.4611981150762676 -0.32779860970578495 -4.4913961980135806 -0.3141324510762844 -0.60151641746304341 -1.7042287248782522 -0.60746512544662568;-0.36390040073661462 0.82438772892696977 -2.8374173059462984 4.1427336781487929 -2.5035140301517402 0.88460053126131488 -0.90052751665224451 -0.43639728719537524 1.0237898141785677 -0.75124476159257758 -0.32950311903761742 0.88475193440328714 -0.16347775964819158 -0.90936014092068618 -0.14235746314365963 1.2470696351203787 -0.45287922120329627 -1.5104729570932376 1.0701424279884209 -0.62836201180425377 -2.1674238427308565 -0.18354272629002857 0.49437522337893036 0.86448297561596155 0.38394706570623949;-0.56703672872309274 -1.3783768187810088 0.63075814510039863 -1.8598917757900251 1.6355553845852406 0.60736466770498077 0.62305627285601084 -0.24860723724742853 2.7288090293311313 -1.1457038132551054 0.30035223449960363 0.85358162612488464 0.040792886542032405 0.017079616467040027 -0.51366741650362968 0.35027593638401217 2.5325266994368154 0.56457441404925901 0.62096747883867731 0.0013850891765285972 4.9346911436906753 0.4203718530647359 1.0766581356171059 2.0114819785259708 0.91839613354330474];

% Layer 3
b3 = -6.6745142295756388;
LW3_2 = [0.32988180131985895 0.45190505714700208 0.070327624304306433 0.10142203052478002 -0.16067112426982408 -0.84986617150776034 -7.374865046011096 0.40412960605286929 0.21167219080862654 0.030806717227521062 0.4564960430794216 -0.64346653547907851 -0.40689381597448249 -0.36070507506795069 0.22223069709578147];

% Output 1
y1_step1.ymin = -1;
y1_step1.gain = 0.00492610837438424;
y1_step1.xoffset = 2075.6;

% ===== SIMULATION ========

% Format Input Arguments
isCellX = iscell(X);
if ~isCellX
  X = {X};
end

% Dimensions
TS = size(X,2); % timesteps
if ~isempty(X)
  Q = size(X{1},2); % samples/series
else
  Q = 0;
end

% Allocate Outputs
Y = cell(1,TS);

% Time loop
for ts=1:TS

    % Input 1
    Xp1 = mapminmax_apply(X{1,ts},x1_step1);
    
    % Layer 1
    a1 = tansig_apply(repmat(b1,1,Q) + IW1_1*Xp1);
    
    % Layer 2
    a2 = tansig_apply(repmat(b2,1,Q) + LW2_1*a1);
    
    % Layer 3
    a3 = repmat(b3,1,Q) + LW3_2*a2;
    
    % Output 1
    Y{1,ts} = mapminmax_reverse(a3,y1_step1);
end

% Final Delay States
Xf = cell(1,0);
Af = cell(3,0);

% Format Output Arguments
if ~isCellX
  Y = cell2mat(Y);
end
end

% ===== MODULE FUNCTIONS ========

% Map Minimum and Maximum Input Processing Function
function y = mapminmax_apply(x,settings)
  y = bsxfun(@minus,x,settings.xoffset);
  y = bsxfun(@times,y,settings.gain);
  y = bsxfun(@plus,y,settings.ymin);
end

% Sigmoid Symmetric Transfer Function
function a = tansig_apply(n,~)
  a = 2 ./ (1 + exp(-2*n)) - 1;
end

% Map Minimum and Maximum Output Reverse-Processing Function
function x = mapminmax_reverse(y,settings)
  x = bsxfun(@minus,y,settings.ymin);
  x = bsxfun(@rdivide,x,settings.gain);
  x = bsxfun(@plus,x,settings.xoffset);
end
